digraph Tree {
node [shape=box, style="rounded", color="black", fontname="helvetica"] ;
edge [fontname="helvetica"] ;
0 [label="consumer_price_index <= 91.9\nsquared_error = 2262281770.3\nsamples = 95\nvalue = [[2011.0]\n[6.8]\n[235519.8]\n[243206.0]]"] ;
1 [label="manufac_prod_index <= 89.6\nsquared_error = 469054066.1\nsamples = 46\nvalue = [[2006.5]\n[6.6]\n[177268.5]\n[179620.2]]"] ;
0 -> 1 [labeldistance=2.5, labelangle=45, headlabel="True"] ;
2 [label="GDP_constant <= 556016.0\nsquared_error = 197740587.8\nsamples = 31\nvalue = [[2005.1]\n[6.4]\n[160228.1]\n[161934.8]]"] ;
1 -> 2 ;
3 [label="consumer_price_index <= 72.4\nsquared_error = 58405093.8\nsamples = 13\nvalue = [[2003.6]\n[5.3]\n[140958.1]\n[138856.3]]"] ;
2 -> 3 ;
4 [label="manufac_prod_index <= 63.3\nsquared_error = 32462758.9\nsamples = 9\nvalue = [[2003.3]\n[5.3]\n[135624.8]\n[134373.5]]"] ;
3 -> 4 ;
5 [label="squared_error = 0.0\nsamples = 1\nvalue = [[2003.0]\n[2.0]\n[120609.0]\n[114065.0]]"] ;
4 -> 5 ;
6 [label="unemployment_rate <= 2.5\nsquared_error = 20770712.9\nsamples = 8\nvalue = [[2003.3]\n[5.6]\n[136876.1]\n[136065.9]]"] ;
4 -> 6 ;
7 [label="exchange_rate <= 41.1\nsquared_error = 7553715.8\nsamples = 5\nvalue = [[2003.3]\n[7.4]\n[138881.9]\n[141587.4]]"] ;
6 -> 7 ;
8 [label="unemployment_rate <= 1.6\nsquared_error = 1352648.2\nsamples = 3\nvalue = [[2003.4]\n[7.4]\n[138503.2]\n[144677.6]]"] ;
7 -> 8 ;
9 [label="squared_error = 0.0\nsamples = 1\nvalue = [[2003.0]\n[12.0]\n[139644.0]\n[146913.0]]"] ;
8 -> 9 ;
10 [label="exchange_rate <= 39.8\nsquared_error = 504841.7\nsamples = 2\nvalue = [[2003.7]\n[4.3]\n[137742.7]\n[143187.3]]"] ;
8 -> 10 ;
11 [label="squared_error = 0.0\nsamples = 1\nvalue = [[2004.0]\n[2.0]\n[138718.0]\n[143429.0]]"] ;
10 -> 11 ;
12 [label="squared_error = 0.0\nsamples = 1\nvalue = [[2003.0]\n[9.0]\n[135792.0]\n[142704.0]]"] ;
10 -> 12 ;
13 [label="unemployment_rate <= 1.5\nsquared_error = 1853952.1\nsamples = 2\nvalue = [[2003.0]\n[7.5]\n[139828.5]\n[133862.0]]"] ;
7 -> 13 ;
14 [label="squared_error = 0.0\nsamples = 1\nvalue = [[2003.0]\n[7.0]\n[142117.0]\n[132386.0]]"] ;
13 -> 14 ;
15 [label="squared_error = 0.0\nsamples = 1\nvalue = [[2003.0]\n[8.0]\n[137540.0]\n[135338.0]]"] ;
13 -> 15 ;
16 [label="manufac_prod_index <= 64.8\nsquared_error = 10285919.3\nsamples = 3\nvalue = [[2003.4]\n[3.0]\n[134068.0]\n[128335.8]]"] ;
6 -> 16 ;
17 [label="squared_error = 0.0\nsamples = 1\nvalue = [[2003.0]\n[3.0]\n[138766.0]\n[139789.0]]"] ;
16 -> 17 ;
18 [label="population <= 63313038.0\nsquared_error = 884977.7\nsamples = 2\nvalue = [[2003.5]\n[3.0]\n[132893.5]\n[125472.5]]"] ;
16 -> 18 ;
19 [label="squared_error = 0.0\nsamples = 1\nvalue = [[2003.0]\n[5.0]\n[131118.0]\n[126095.0]]"] ;
18 -> 19 ;
20 [label="squared_error = 0.0\nsamples = 1\nvalue = [[2004.0]\n[1.0]\n[134669.0]\n[124850.0]]"] ;
18 -> 20 ;
21 [label="GDP_constant <= 552654.0\nsquared_error = 12272984.9\nsamples = 4\nvalue = [[2004.4]\n[5.2]\n[154824.6]\n[150511.6]]"] ;
3 -> 21 ;
22 [label="export_value <= 364970.0\nsquared_error = 2034970.2\nsamples = 3\nvalue = [[2004.0]\n[6.0]\n[151248.3]\n[154596.0]]"] ;
21 -> 22 ;
23 [label="import_value <= 343257.5\nsquared_error = 1269558.6\nsamples = 2\nvalue = [[2004.0]\n[6.0]\n[152116.0]\n[155870.5]]"] ;
22 -> 23 ;
24 [label="squared_error = 0.0\nsamples = 1\nvalue = [[2004.0]\n[3.0]\n[153901.0]\n[154495.0]]"] ;
23 -> 24 ;
25 [label="squared_error = 0.0\nsamples = 1\nvalue = [[2004.0]\n[9.0]\n[150331.0]\n[157246.0]]"] ;
23 -> 25 ;
26 [label="squared_error = 0.0\nsamples = 1\nvalue = [[2004.0]\n[6.0]\n[149513.0]\n[152047.0]]"] ;
22 -> 26 ;
27 [label="squared_error = 0.0\nsamples = 1\nvalue = [[2005.0]\n[4.0]\n[160189.0]\n[144385.0]]"] ;
21 -> 27 ;
28 [label="consumer_price_index <= 80.0\nsquared_error = 71235074.7\nsamples = 18\nvalue = [[2005.9]\n[7.1]\n[171417.2]\n[175335.2]]"] ;
2 -> 28 ;
29 [label="GDP_constant <= 589210.0\nsquared_error = 22795375.8\nsamples = 8\nvalue = [[2005.0]\n[7.4]\n[163419.2]\n[162387.9]]"] ;
28 -> 29 ;
30 [label="export_value <= 372783.5\nsquared_error = 7546860.9\nsamples = 4\nvalue = [[2004.9]\n[6.0]\n[159715.0]\n[159869.3]]"] ;
29 -> 30 ;
31 [label="squared_error = 0.0\nsamples = 1\nvalue = [[2005.0]\n[3.0]\n[164758.0]\n[162397.0]]"] ;
30 -> 31 ;
32 [label="inflation_percentage_change <= 0.9\nsquared_error = 2765676.1\nsamples = 3\nvalue = [[2004.8]\n[8.2]\n[155932.8]\n[157973.5]]"] ;
30 -> 32 ;
33 [label="GDP_constant <= 567049.0\nsquared_error = 244911.3\nsamples = 2\nvalue = [[2004.3]\n[9.7]\n[155644.0]\n[159806.3]]"] ;
32 -> 33 ;
34 [label="squared_error = 0.0\nsamples = 1\nvalue = [[2005.0]\n[9.0]\n[156130.0]\n[161119.0]]"] ;
33 -> 34 ;
35 [label="squared_error = 0.0\nsamples = 1\nvalue = [[2004.0]\n[10.0]\n[155401.0]\n[159150.0]]"] ;
33 -> 35 ;
36 [label="squared_error = 0.0\nsamples = 1\nvalue = [[2006.0]\n[4.0]\n[156799.0]\n[152475.0]]"] ;
32 -> 36 ;
37 [label="population <= 62368826.0\nsquared_error = 27288720.2\nsamples = 4\nvalue = [[2005.2]\n[9.4]\n[168605.2]\n[165914.0]]"] ;
29 -> 37 ;
38 [label="squared_error = 0.0\nsamples = 1\nvalue = [[2005.0]\n[10.0]\n[184182.0]\n[173448.0]]"] ;
37 -> 38 ;
39 [label="month <= 11.5\nsquared_error = 10720442.9\nsamples = 3\nvalue = [[2005.2]\n[9.2]\n[164711.0]\n[164030.5]]"] ;
37 -> 39 ;
40 [label="GDP_constant <= 601169.5\nsquared_error = 361746.4\nsamples = 2\nvalue = [[2005.5]\n[6.5]\n[162964.0]\n[157777.0]]"] ;
39 -> 40 ;
41 [label="squared_error = 0.0\nsamples = 1\nvalue = [[2005.0]\n[11.0]\n[162491.0]\n[158883.0]]"] ;
40 -> 41 ;
42 [label="squared_error = 0.0\nsamples = 1\nvalue = [[2006.0]\n[2.0]\n[163437.0]\n[156671.0]]"] ;
40 -> 42 ;
43 [label="squared_error = 0.0\nsamples = 1\nvalue = [[2005.0]\n[12.0]\n[166458.0]\n[170284.0]]"] ;
39 -> 43 ;
44 [label="inflation_percentage_change <= 0.9\nsquared_error = 42164672.7\nsamples = 10\nvalue = [[2006.5]\n[6.9]\n[176468.5]\n[183512.4]]"] ;
28 -> 44 ;
45 [label="manufac_prod_index <= 87.4\nsquared_error = 27340444.4\nsamples = 9\nvalue = [[2006.4]\n[7.2]\n[178032.7]\n[184592.8]]"] ;
44 -> 45 ;
46 [label="import_value <= 375131.5\nsquared_error = 10558421.2\nsamples = 6\nvalue = [[2006.5]\n[7.3]\n[183025.6]\n[188672.9]]"] ;
45 -> 46 ;
47 [label="squared_error = 0.0\nsamples = 1\nvalue = [[2009.0]\n[3.0]\n[195068.0]\n[194823.0]]"] ;
46 -> 47 ;
48 [label="inflation_percentage_change <= 0.1\nsquared_error = 6586103.8\nsamples = 5\nvalue = [[2006.2]\n[7.7]\n[181821.4]\n[188057.9]]"] ;
46 -> 48 ;
49 [label="population <= 62689118.0\nsquared_error = 2088076.6\nsamples = 3\nvalue = [[2006.4]\n[9.2]\n[182988.6]\n[184034.4]]"] ;
48 -> 49 ;
50 [label="squared_error = 0.0\nsamples = 1\nvalue = [[2006.0]\n[8.0]\n[185207.0]\n[185438.0]]"] ;
49 -> 50 ;
51 [label="year <= 2007.0\nsquared_error = 1565851.8\nsamples = 2\nvalue = [[2006.7]\n[10.0]\n[181509.7]\n[183098.7]]"] ;
49 -> 51 ;
52 [label="squared_error = 0.0\nsamples = 1\nvalue = [[2006.0]\n[9.0]\n[180469.0]\n[184530.0]]"] ;
51 -> 52 ;
53 [label="squared_error = 0.0\nsamples = 1\nvalue = [[2008.0]\n[12.0]\n[183591.0]\n[180236.0]]"] ;
51 -> 53 ;
54 [label="manufac_prod_index <= 86.2\nsquared_error = 2308675.7\nsamples = 2\nvalue = [[2006.0]\n[6.2]\n[180654.2]\n[192081.4]]"] ;
48 -> 54 ;
55 [label="squared_error = 0.0\nsamples = 1\nvalue = [[2006.0]\n[7.0]\n[182933.0]\n[193063.0]]"] ;
54 -> 55 ;
56 [label="squared_error = 0.0\nsamples = 1\nvalue = [[2006.0]\n[5.0]\n[177236.0]\n[190609.0]]"] ;
54 -> 56 ;
57 [label="consumer_price_index <= 80.6\nsquared_error = 11711280.2\nsamples = 3\nvalue = [[2006.3]\n[7.0]\n[170186.7]\n[178181.1]]"] ;
45 -> 57 ;
58 [label="manufac_prod_index <= 88.3\nsquared_error = 1149653.9\nsamples = 2\nvalue = [[2006.5]\n[4.0]\n[175042.0]\n[175084.5]]"] ;
57 -> 58 ;
59 [label="squared_error = 0.0\nsamples = 1\nvalue = [[2006.0]\n[6.0]\n[173819.0]\n[173323.0]]"] ;
58 -> 59 ;
60 [label="squared_error = 0.0\nsamples = 1\nvalue = [[2007.0]\n[2.0]\n[176265.0]\n[176846.0]]"] ;
58 -> 60 ;
61 [label="squared_error = 0.0\nsamples = 1\nvalue = [[2006.0]\n[11.0]\n[163713.0]\n[182310.0]]"] ;
57 -> 61 ;
62 [label="squared_error = 0.0\nsamples = 1\nvalue = [[2009.0]\n[2.0]\n[148312.0]\n[164066.0]]"] ;
44 -> 62 ;
63 [label="export_value <= 496062.0\nsquared_error = 126024218.9\nsamples = 15\nvalue = [[2009.2]\n[6.8]\n[210667.6]\n[214283.5]]"] ;
1 -> 63 ;
64 [label="month <= 5.5\nsquared_error = 36212063.6\nsamples = 7\nvalue = [[2008.7]\n[7.1]\n[196489.7]\n[203666.0]]"] ;
63 -> 64 ;
65 [label="import_value <= 447560.5\nsquared_error = 24136299.8\nsamples = 2\nvalue = [[2009.2]\n[2.5]\n[186558.5]\n[198287.2]]"] ;
64 -> 65 ;
66 [label="squared_error = 0.0\nsamples = 1\nvalue = [[2007.0]\n[4.0]\n[197798.0]\n[185508.0]]"] ;
65 -> 66 ;
67 [label="squared_error = 0.0\nsamples = 1\nvalue = [[2010.0]\n[2.0]\n[182812.0]\n[202547.0]]"] ;
65 -> 67 ;
68 [label="population <= 63467838.0\nsquared_error = 18332624.7\nsamples = 5\nvalue = [[2008.4]\n[9.4]\n[201455.2]\n[206355.4]]"] ;
64 -> 68 ;
69 [label="year <= 2007.5\nsquared_error = 11959691.3\nsamples = 3\nvalue = [[2008.0]\n[8.6]\n[205417.2]\n[205441.4]]"] ;
68 -> 69 ;
70 [label="squared_error = 0.0\nsamples = 1\nvalue = [[2007.0]\n[7.0]\n[207651.0]\n[212348.0]]"] ;
69 -> 70 ;
71 [label="exchange_rate <= 34.5\nsquared_error = 5296432.8\nsamples = 2\nvalue = [[2008.7]\n[9.7]\n[203928.0]\n[200837.0]]"] ;
69 -> 71 ;
72 [label="squared_error = 0.0\nsamples = 1\nvalue = [[2009.0]\n[9.0]\n[204120.0]\n[204086.0]]"] ;
71 -> 72 ;
73 [label="squared_error = 0.0\nsamples = 1\nvalue = [[2008.0]\n[11.0]\n[203544.0]\n[194339.0]]"] ;
71 -> 73 ;
74 [label="manufac_prod_index <= 105.3\nsquared_error = 10584848.3\nsamples = 2\nvalue = [[2009.0]\n[10.7]\n[194852.0]\n[207878.7]]"] ;
68 -> 74 ;
75 [label="squared_error = 0.0\nsamples = 1\nvalue = [[2009.0]\n[10.0]\n[193980.0]\n[203361.0]]"] ;
74 -> 75 ;
76 [label="squared_error = 0.0\nsamples = 1\nvalue = [[2009.0]\n[12.0]\n[196596.0]\n[216914.0]]"] ;
74 -> 76 ;
77 [label="inflation_percentage_change <= 0.9\nsquared_error = 69691567.1\nsamples = 8\nvalue = [[2009.8]\n[6.5]\n[223754.9]\n[224084.3]]"] ;
63 -> 77 ;
78 [label="month <= 6.0\nsquared_error = 33641708.7\nsamples = 6\nvalue = [[2009.8]\n[8.1]\n[220136.0]\n[234370.2]]"] ;
77 -> 78 ;
79 [label="import_value <= 496329.0\nsquared_error = 45705921.4\nsamples = 2\nvalue = [[2010.5]\n[4.0]\n[225218.5]\n[246849.0]]"] ;
78 -> 79 ;
80 [label="squared_error = 0.0\nsamples = 1\nvalue = [[2010.0]\n[5.0]\n[212994.0]\n[252627.0]]"] ;
79 -> 80 ;
81 [label="squared_error = 0.0\nsamples = 1\nvalue = [[2011.0]\n[3.0]\n[237443.0]\n[241071.0]]"] ;
79 -> 81 ;
82 [label="inflation_percentage_change <= 0.2\nsquared_error = 9447968.3\nsamples = 4\nvalue = [[2009.5]\n[9.5]\n[218441.8]\n[230210.7]]"] ;
78 -> 82 ;
83 [label="month <= 11.5\nsquared_error = 4710271.7\nsamples = 3\nvalue = [[2009.2]\n[10.2]\n[219015.8]\n[226705.5]]"] ;
82 -> 83 ;
84 [label="month <= 9.0\nsquared_error = 793037.2\nsamples = 2\nvalue = [[2010.0]\n[9.7]\n[216707.3]\n[226307.3]]"] ;
83 -> 84 ;
85 [label="squared_error = 0.0\nsamples = 1\nvalue = [[2010.0]\n[7.0]\n[216732.0]\n[228826.0]]"] ;
84 -> 85 ;
86 [label="squared_error = 0.0\nsamples = 1\nvalue = [[2010.0]\n[11.0]\n[216695.0]\n[225048.0]]"] ;
84 -> 86 ;
87 [label="squared_error = 0.0\nsamples = 1\nvalue = [[2007.0]\n[12.0]\n[225941.0]\n[227900.0]]"] ;
83 -> 87 ;
88 [label="squared_error = 0.0\nsamples = 1\nvalue = [[2010.0]\n[8.0]\n[217294.0]\n[237221.0]]"] ;
82 -> 88 ;
89 [label="GDP_constant <= 655239.0\nsquared_error = 3718236.1\nsamples = 2\nvalue = [[2009.8]\n[4.0]\n[229545.2]\n[207626.8]]"] ;
77 -> 89 ;
90 [label="squared_error = 0.0\nsamples = 1\nvalue = [[2008.0]\n[4.0]\n[224831.0]\n[207334.0]]"] ;
89 -> 90 ;
91 [label="squared_error = 0.0\nsamples = 1\nvalue = [[2011.0]\n[4.0]\n[232688.0]\n[207822.0]]"] ;
89 -> 91 ;
92 [label="year <= 2015.5\nsquared_error = 569371034.4\nsamples = 49\nvalue = [[2015.3]\n[7.0]\n[290084.4]\n[302767.4]]"] ;
0 -> 92 [labeldistance=2.5, labelangle=-45, headlabel="False"] ;
93 [label="consumer_price_index <= 97.4\nsquared_error = 160686200.2\nsamples = 27\nvalue = [[2013.1]\n[7.2]\n[264930.0]\n[275106.9]]"] ;
92 -> 93 ;
94 [label="unemployment_rate <= 0.5\nsquared_error = 63522673.3\nsamples = 17\nvalue = [[2012.2]\n[7.2]\n[252437.3]\n[262345.5]]"] ;
93 -> 94 ;
95 [label="import_value <= 541583.5\nsquared_error = 23743617.9\nsamples = 2\nvalue = [[2011.5]\n[11.5]\n[231363.5]\n[240936.0]]"] ;
94 -> 95 ;
96 [label="squared_error = 0.0\nsamples = 1\nvalue = [[2011.0]\n[12.0]\n[222102.0]\n[237903.0]]"] ;
95 -> 96 ;
97 [label="squared_error = 0.0\nsamples = 1\nvalue = [[2012.0]\n[11.0]\n[240625.0]\n[243969.0]]"] ;
95 -> 97 ;
98 [label="import_value <= 547310.5\nsquared_error = 45656775.0\nsamples = 15\nvalue = [[2012.2]\n[6.8]\n[254269.8]\n[264207.2]]"] ;
94 -> 98 ;
99 [label="inflation_percentage_change <= 0.4\nsquared_error = 8067080.7\nsamples = 3\nvalue = [[2011.9]\n[6.0]\n[260910.1]\n[258150.6]]"] ;
98 -> 99 ;
100 [label="import_value <= 528300.5\nsquared_error = 1697342.8\nsamples = 2\nvalue = [[2011.8]\n[8.4]\n[265636.6]\n[257474.2]]"] ;
99 -> 100 ;
101 [label="squared_error = 0.0\nsamples = 1\nvalue = [[2011.0]\n[10.0]\n[265982.0]\n[256218.0]]"] ;
100 -> 101 ;
102 [label="squared_error = 0.0\nsamples = 1\nvalue = [[2015.0]\n[2.0]\n[264255.0]\n[262499.0]]"] ;
100 -> 102 ;
103 [label="squared_error = 0.0\nsamples = 1\nvalue = [[2012.0]\n[3.0]\n[255002.0]\n[258996.0]]"] ;
99 -> 103 ;
104 [label="unemployment_rate <= 0.7\nsquared_error = 48494238.5\nsamples = 12\nvalue = [[2012.4]\n[7.4]\n[250001.1]\n[268100.7]]"] ;
98 -> 104 ;
105 [label="export_value <= 578298.5\nsquared_error = 42542846.7\nsamples = 9\nvalue = [[2012.2]\n[7.4]\n[249662.5]\n[272591.1]]"] ;
104 -> 105 ;
106 [label="squared_error = 0.0\nsamples = 1\nvalue = [[2012.0]\n[6.0]\n[228760.0]\n[258719.0]]"] ;
105 -> 106 ;
107 [label="import_value <= 557642.5\nsquared_error = 27845457.3\nsamples = 8\nvalue = [[2012.2]\n[7.6]\n[251985.0]\n[274132.4]]"] ;
105 -> 107 ;
108 [label="exchange_rate <= 32.0\nsquared_error = 10053221.2\nsamples = 2\nvalue = [[2012.5]\n[9.5]\n[257537.5]\n[286348.5]]"] ;
107 -> 108 ;
109 [label="squared_error = 0.0\nsamples = 1\nvalue = [[2012.0]\n[7.0]\n[261296.0]\n[281241.0]]"] ;
108 -> 109 ;
110 [label="squared_error = 0.0\nsamples = 1\nvalue = [[2013.0]\n[12.0]\n[253779.0]\n[291456.0]]"] ;
108 -> 110 ;
111 [label="month <= 9.0\nsquared_error = 16392622.1\nsamples = 6\nvalue = [[2012.1]\n[7.0]\n[250398.6]\n[270642.1]]"] ;
107 -> 111 ;
112 [label="population <= 64565926.0\nsquared_error = 3957907.9\nsamples = 4\nvalue = [[2012.2]\n[5.4]\n[249388.6]\n[273611.8]]"] ;
111 -> 112 ;
113 [label="exchange_rate <= 30.0\nsquared_error = 2300889.3\nsamples = 3\nvalue = [[2012.0]\n[5.2]\n[250217.2]\n[272415.8]]"] ;
112 -> 113 ;
114 [label="GDP_constant <= 737543.5\nsquared_error = 852940.6\nsamples = 2\nvalue = [[2012.3]\n[4.7]\n[248863.3]\n[273033.7]]"] ;
113 -> 114 ;
115 [label="squared_error = 0.0\nsamples = 1\nvalue = [[2011.0]\n[8.0]\n[246964.0]\n[274827.0]]"] ;
114 -> 115 ;
116 [label="squared_error = 0.0\nsamples = 1\nvalue = [[2013.0]\n[3.0]\n[249813.0]\n[272137.0]]"] ;
114 -> 116 ;
117 [label="squared_error = 0.0\nsamples = 1\nvalue = [[2011.0]\n[7.0]\n[254279.0]\n[270562.0]]"] ;
113 -> 117 ;
118 [label="squared_error = 0.0\nsamples = 1\nvalue = [[2013.0]\n[6.0]\n[246074.0]\n[278396.0]]"] ;
112 -> 118 ;
119 [label="interest_rate <= 0.7\nsquared_error = 25956795.3\nsamples = 2\nvalue = [[2012.0]\n[11.0]\n[252923.5]\n[263218.0]]"] ;
111 -> 119 ;
120 [label="squared_error = 0.0\nsamples = 1\nvalue = [[2012.0]\n[12.0]\n[243076.0]\n[265836.0]]"] ;
119 -> 120 ;
121 [label="squared_error = 0.0\nsamples = 1\nvalue = [[2012.0]\n[10.0]\n[262771.0]\n[260600.0]]"] ;
119 -> 121 ;
122 [label="population <= 64593392.0\nsquared_error = 19014167.5\nsamples = 3\nvalue = [[2013.0]\n[7.2]\n[250847.5]\n[256874.8]]"] ;
104 -> 122 ;
123 [label="squared_error = 0.0\nsamples = 1\nvalue = [[2013.0]\n[4.0]\n[252101.0]\n[243309.0]]"] ;
122 -> 123 ;
124 [label="import_value <= 550499.5\nsquared_error = 4729907.2\nsamples = 2\nvalue = [[2013.0]\n[8.3]\n[250429.7]\n[261396.7]]"] ;
122 -> 124 ;
125 [label="squared_error = 0.0\nsamples = 1\nvalue = [[2013.0]\n[11.0]\n[246075.0]\n[257052.0]]"] ;
124 -> 125 ;
126 [label="squared_error = 0.0\nsamples = 1\nvalue = [[2013.0]\n[7.0]\n[252607.0]\n[263569.0]]"] ;
124 -> 126 ;
127 [label="consumer_price_index <= 97.5\nsquared_error = 45586624.0\nsamples = 10\nvalue = [[2014.4]\n[7.2]\n[281367.8]\n[291898.3]]"] ;
93 -> 127 ;
128 [label="squared_error = 0.0\nsamples = 1\nvalue = [[2015.0]\n[4.0]\n[295315.0]\n[257373.0]]"] ;
127 -> 128 ;
129 [label="manufac_prod_index <= 96.0\nsquared_error = 27792190.1\nsamples = 9\nvalue = [[2014.3]\n[7.4]\n[280593.0]\n[293816.3]]"] ;
127 -> 129 ;
130 [label="squared_error = 0.0\nsamples = 1\nvalue = [[2015.0]\n[5.0]\n[284204.0]\n[321507.0]]"] ;
129 -> 130 ;
131 [label="exchange_rate <= 32.5\nsquared_error = 17284618.0\nsamples = 8\nvalue = [[2014.3]\n[7.5]\n[280380.6]\n[292187.5]]"] ;
129 -> 131 ;
132 [label="population <= 65027560.0\nsquared_error = 10320553.6\nsamples = 3\nvalue = [[2014.0]\n[7.8]\n[286376.2]\n[292730.8]]"] ;
131 -> 132 ;
133 [label="import_value <= 541299.0\nsquared_error = 2687145.7\nsamples = 2\nvalue = [[2014.0]\n[5.5]\n[283631.5]\n[298057.5]]"] ;
132 -> 133 ;
134 [label="squared_error = 0.0\nsamples = 1\nvalue = [[2014.0]\n[3.0]\n[286889.0]\n[297687.0]]"] ;
133 -> 134 ;
135 [label="squared_error = 0.0\nsamples = 1\nvalue = [[2014.0]\n[8.0]\n[280374.0]\n[298428.0]]"] ;
133 -> 135 ;
136 [label="squared_error = 0.0\nsamples = 1\nvalue = [[2014.0]\n[10.0]\n[289121.0]\n[287404.0]]"] ;
132 -> 136 ;
137 [label="exchange_rate <= 35.0\nsquared_error = 8261739.0\nsamples = 5\nvalue = [[2014.6]\n[7.3]\n[275051.1]\n[291704.6]]"] ;
131 -> 137 ;
138 [label="inflation_percentage_change <= -0.3\nsquared_error = 3335262.4\nsamples = 4\nvalue = [[2014.5]\n[7.0]\n[273437.4]\n[291493.9]]"] ;
137 -> 138 ;
139 [label="squared_error = 0.0\nsamples = 1\nvalue = [[2014.0]\n[12.0]\n[268554.0]\n[286028.0]]"] ;
138 -> 139 ;
140 [label="manufac_prod_index <= 96.7\nsquared_error = 1618946.2\nsamples = 3\nvalue = [[2014.6]\n[6.3]\n[274135.0]\n[292274.7]]"] ;
138 -> 140 ;
141 [label="squared_error = 0.0\nsamples = 1\nvalue = [[2014.0]\n[6.0]\n[272883.0]\n[298103.0]]"] ;
140 -> 141 ;
142 [label="manufac_prod_index <= 97.7\nsquared_error = 161305.7\nsamples = 2\nvalue = [[2014.7]\n[6.3]\n[274343.7]\n[291303.3]]"] ;
140 -> 142 ;
143 [label="squared_error = 0.0\nsamples = 1\nvalue = [[2014.0]\n[5.0]\n[274579.0]\n[290192.0]]"] ;
142 -> 143 ;
144 [label="squared_error = 0.0\nsamples = 1\nvalue = [[2015.0]\n[7.0]\n[274226.0]\n[291859.0]]"] ;
142 -> 144 ;
145 [label="squared_error = 0.0\nsamples = 1\nvalue = [[2015.0]\n[10.0]\n[287961.0]\n[293390.0]]"] ;
137 -> 145 ;
146 [label="manufac_prod_index <= 105.4\nsquared_error = 91533093.3\nsamples = 22\nvalue = [[2018.0]\n[6.7]\n[321706.9]\n[337540.6]]"] ;
92 -> 146 ;
147 [label="month <= 11.5\nsquared_error = 79554425.4\nsamples = 15\nvalue = [[2018.0]\n[6.1]\n[315899.4]\n[331503.2]]"] ;
146 -> 147 ;
148 [label="manufac_prod_index <= 103.5\nsquared_error = 67809915.2\nsamples = 13\nvalue = [[2017.9]\n[5.4]\n[314731.7]\n[328919.8]]"] ;
147 -> 148 ;
149 [label="inflation_percentage_change <= 0.1\nsquared_error = 70419058.2\nsamples = 9\nvalue = [[2017.5]\n[5.7]\n[308671.2]\n[329939.4]]"] ;
148 -> 149 ;
150 [label="consumer_price_index <= 99.4\nsquared_error = 55687435.6\nsamples = 5\nvalue = [[2017.7]\n[6.5]\n[310337.3]\n[321659.7]]"] ;
149 -> 150 ;
151 [label="population <= 65883002.0\nsquared_error = 6416932.2\nsamples = 3\nvalue = [[2017.0]\n[5.5]\n[302324.2]\n[317105.0]]"] ;
150 -> 151 ;
152 [label="squared_error = 0.0\nsamples = 1\nvalue = [[2016.0]\n[9.0]\n[296956.0]\n[311156.0]]"] ;
151 -> 152 ;
153 [label="export_value <= 643422.5\nsquared_error = 1421607.2\nsamples = 2\nvalue = [[2017.3]\n[4.3]\n[304113.7]\n[319088.0]]"] ;
151 -> 153 ;
154 [label="squared_error = 0.0\nsamples = 1\nvalue = [[2016.0]\n[11.0]\n[305359.0]\n[322222.0]]"] ;
153 -> 154 ;
155 [label="squared_error = 0.0\nsamples = 1\nvalue = [[2018.0]\n[1.0]\n[303491.0]\n[317521.0]]"] ;
153 -> 155 ;
156 [label="inflation_percentage_change <= -0.2\nsquared_error = 26796700.9\nsamples = 2\nvalue = [[2019.0]\n[8.5]\n[326363.5]\n[330769.0]]"] ;
150 -> 156 ;
157 [label="squared_error = 0.0\nsamples = 1\nvalue = [[2019.0]\n[6.0]\n[332711.0]\n[338948.0]]"] ;
156 -> 157 ;
158 [label="squared_error = 0.0\nsamples = 1\nvalue = [[2019.0]\n[11.0]\n[320016.0]\n[322590.0]]"] ;
156 -> 158 ;
159 [label="month <= 7.5\nsquared_error = 41019572.5\nsamples = 4\nvalue = [[2017.4]\n[4.8]\n[306671.8]\n[339875.0]]"] ;
149 -> 159 ;
160 [label="export_value <= 623998.0\nsquared_error = 21855914.8\nsamples = 3\nvalue = [[2017.8]\n[3.5]\n[302295.2]\n[341968.0]]"] ;
159 -> 160 ;
161 [label="squared_error = 0.0\nsamples = 1\nvalue = [[2016.0]\n[5.0]\n[293625.0]\n[331754.0]]"] ;
160 -> 161 ;
162 [label="consumer_price_index <= 98.7\nsquared_error = 9196882.3\nsamples = 2\nvalue = [[2018.3]\n[3.0]\n[305185.3]\n[345372.7]]"] ;
160 -> 162 ;
163 [label="squared_error = 0.0\nsamples = 1\nvalue = [[2017.0]\n[5.0]\n[310552.0]\n[352064.0]]"] ;
162 -> 163 ;
164 [label="squared_error = 0.0\nsamples = 1\nvalue = [[2019.0]\n[2.0]\n[302502.0]\n[342027.0]]"] ;
162 -> 164 ;
165 [label="squared_error = 0.0\nsamples = 1\nvalue = [[2016.0]\n[10.0]\n[324178.0]\n[331503.0]]"] ;
159 -> 165 ;
166 [label="month <= 4.5\nsquared_error = 25554722.6\nsamples = 4\nvalue = [[2018.6]\n[5.0]\n[324255.4]\n[327317.6]]"] ;
148 -> 166 ;
167 [label="manufac_prod_index <= 104.4\nsquared_error = 5515493.4\nsamples = 2\nvalue = [[2018.7]\n[4.0]\n[332439.3]\n[320407.0]]"] ;
166 -> 167 ;
168 [label="squared_error = 0.0\nsamples = 1\nvalue = [[2018.0]\n[4.0]\n[330876.0]\n[313951.0]]"] ;
167 -> 168 ;
169 [label="squared_error = 0.0\nsamples = 1\nvalue = [[2019.0]\n[4.0]\n[333221.0]\n[323635.0]]"] ;
167 -> 169 ;
170 [label="GDP_constant <= 855640.5\nsquared_error = 2937610.0\nsamples = 2\nvalue = [[2018.5]\n[5.8]\n[318117.5]\n[332500.5]]"] ;
166 -> 170 ;
171 [label="squared_error = 0.0\nsamples = 1\nvalue = [[2017.0]\n[8.0]\n[324023.0]\n[333114.0]]"] ;
170 -> 171 ;
172 [label="squared_error = 0.0\nsamples = 1\nvalue = [[2019.0]\n[5.0]\n[316149.0]\n[332296.0]]"] ;
170 -> 172 ;
173 [label="GDP_constant <= 910218.5\nsquared_error = 4418758.1\nsamples = 2\nvalue = [[2018.0]\n[12.0]\n[326408.0]\n[354753.5]]"] ;
147 -> 173 ;
174 [label="squared_error = 0.0\nsamples = 1\nvalue = [[2017.0]\n[12.0]\n[323669.0]\n[351564.0]]"] ;
173 -> 174 ;
175 [label="squared_error = 0.0\nsamples = 1\nvalue = [[2019.0]\n[12.0]\n[329147.0]\n[357943.0]]"] ;
173 -> 175 ;
176 [label="consumer_price_index <= 99.4\nsquared_error = 52920764.1\nsamples = 7\nvalue = [[2018.0]\n[7.4]\n[329450.4]\n[345590.6]]"] ;
146 -> 176 ;
177 [label="month <= 5.0\nsquared_error = 839694.5\nsamples = 2\nvalue = [[2018.0]\n[4.3]\n[348853.7]\n[360906.7]]"] ;
176 -> 177 ;
178 [label="squared_error = 0.0\nsamples = 1\nvalue = [[2018.0]\n[3.0]\n[348513.0]\n[362157.0]]"] ;
177 -> 178 ;
179 [label="squared_error = 0.0\nsamples = 1\nvalue = [[2018.0]\n[7.0]\n[349535.0]\n[358406.0]]"] ;
177 -> 179 ;
180 [label="consumer_price_index <= 99.5\nsquared_error = 18201292.0\nsamples = 5\nvalue = [[2018.0]\n[8.2]\n[324599.6]\n[341761.6]]"] ;
176 -> 180 ;
181 [label="squared_error = 0.0\nsamples = 1\nvalue = [[2018.0]\n[6.0]\n[316328.0]\n[345288.0]]"] ;
180 -> 181 ;
182 [label="month <= 6.5\nsquared_error = 12141679.9\nsamples = 4\nvalue = [[2018.0]\n[9.2]\n[328735.4]\n[339998.4]]"] ;
180 -> 182 ;
183 [label="squared_error = 0.0\nsamples = 1\nvalue = [[2018.0]\n[5.0]\n[337639.0]\n[354003.0]]"] ;
182 -> 183 ;
184 [label="month <= 8.5\nsquared_error = 2635222.9\nsamples = 3\nvalue = [[2018.0]\n[9.9]\n[327463.4]\n[337997.7]]"] ;
182 -> 184 ;
185 [label="squared_error = 0.0\nsamples = 1\nvalue = [[2018.0]\n[8.0]\n[332079.0]\n[337908.0]]"] ;
184 -> 185 ;
186 [label="population <= 66375820.0\nsquared_error = 705694.8\nsamples = 2\nvalue = [[2018.0]\n[10.6]\n[325617.2]\n[338033.6]]"] ;
184 -> 186 ;
187 [label="squared_error = 0.0\nsamples = 1\nvalue = [[2018.0]\n[9.0]\n[326786.0]\n[341184.0]]"] ;
186 -> 187 ;
188 [label="squared_error = 0.0\nsamples = 1\nvalue = [[2018.0]\n[11.0]\n[325325.0]\n[337246.0]]"] ;
186 -> 188 ;
}